"","V1","V2","V3","V4","V5","V6","V7","V8","V9","V10","V11","V12","V13","V14","V15","V16","V17","V18","V19","V20","V21","V22","V23","V24","V25","V26","V27","V28","V29","V30","V31","V32","V33","V34","V35","V36","V37","V38","V39","V40","V41","V42","V43","V44","V45"
"1",-38.392588283863,-69.2616604999203,-327.158369452592,-1344.11935533728,40.6946144292024,228.120443653268,-259.525390066385,-96.3469143199145,-355.491637295281,-2011.58008107964,-489.755213726487,-449.925508383103,667.365442964237,-488.655932582136,-187.365693106364,-158.654397232397,151.906526090939,-195.482303732304,-824.081572236206,-1534.5091804403,247.27376257628,-18.0196165093967,-721.98080917625,-1312.49249089737,-384.583037202134,270.661176219302,66.7609867561769,-135.380935238882,53.7327708822249,193.243619037701,-1132.98218939903,-207.596189643768,163.018759778209,143.140654433646,-412.746549507179,-301.969169199272,-450.351852732931,302.616175393739,-352.595941876378,205.003902037042,-884.428345736909,233.891187052723,-752.970382464293,43.1816197715871,56.8174757226752
"2",177.60861625323,342.00835565721,-594.291939044008,-1651.47320913729,-241.005315265661,159.10030209797,177.964196145732,-854.975207716485,-1397.94237792106,-1960.36254186364,-141.388057047472,-823.713196806008,964.677686799329,-182.763631156511,42.2103967485154,405.204306061723,545.422970706182,148.088193768108,625.05716981554,-1204.39114903992,1153.43778781925,954.830805249898,-526.828644786401,-83.8899254382632,133.854325627701,310.869966137416,1587.45681004909,3404.33875247765,368.643400253273,672.948022899316,-1664.12224544099,-310.855844522966,700.029186183747,67.376794942682,204.927690538603,-728.297999011933,-585.570457175934,129.843544837656,-80.8085862656299,1596.0618039945,-76.1732621248339,1248.71233037766,-1776.79257882841,250.018621776148,103.993487133088
"3",-1250.3278047285,-818.609734934464,-1004.76536807989,-2470.00773896361,-999.746525268064,-280.087367568642,76.6047761259606,-1813.32506964496,-2156.75706005815,-3116.38788148886,-942.875751608117,-2219.94184848396,428.981452755026,-2699.74967064937,-65.7865079529674,79.3493270802528,702.759562211451,-876.14704661912,-16.0113578448509,-2883.70369251554,1361.93541562239,1129.61387400962,-3455.41066403045,-697.508555817636,-267.553803846105,-676.674730329756,324.892811878868,-137.29233390302,116.17421703475,607.262705924863,-3098.11494471481,-103.692554021396,740.825612199383,-651.613698877778,236.900199784599,-792.082497024929,-1685.10857392848,-584.998515761526,-1781.09325007331,495.974381648144,-1042.71668501216,1333.36408681498,-1607.93913971083,427.539588238825,-317.736710407811
"4",-1424.31990251948,-1810.30859946565,-1001.84088503487,-3284.20612474104,-1313.18344998432,-824.706961651773,78.9534786223985,-2065.26621199011,-2134.2179847544,-4000.09095113119,-1015.11758687101,-2858.37893808572,69.5670450426587,-3308.32446603898,-550.651148889603,-9.16169183229249,586.962052450055,-1433.40134325822,-792.471985552605,-4418.01472869826,1490.24510512022,749.038740306851,-3809.07150817185,-1783.47680994782,-543.337472857742,-769.957836898309,-891.969902392404,-833.316991674819,-13.2564304148736,464.899688960645,-4086.48849540834,-331.28927004099,553.986550534735,-520.567898744011,-880.674303749985,-1149.89340866699,-2651.91971923428,-1323.47490796444,-1684.45914333798,656.509471671803,-1587.44319313128,681.108117387968,-1230.27353789402,-174.261253740734,-612.502371813964
"5",207.413065659261,-2100.4340628447,-1418.82887276259,-4900.23372444107,-1464.89338659171,-1061.25493102568,-305.911635811796,-3010.98093647053,-2694.47493483166,-4196.60948470755,-1716.18851845727,-3484.17365941443,322.368800100256,-3622.51860798564,-1197.25472328187,243.589053734967,530.882786642944,-2557.53686080329,-2659.65630793505,-6067.3595002199,1927.9137769593,512.440874321055,-5399.4020406288,-3278.93408879157,-1130.92737786003,-719.707315265421,-2523.73489383001,-1260.6145837349,-802.041793154785,-11.7136790658051,-4756.52041854789,-708.805916338006,573.120493004672,-734.793019768626,-1206.90270903741,-1833.66283991009,-2790.61692295447,-1573.63502559553,-1578.27499311639,1131.49223421468,-2430.97760774491,422.950257182249,-875.189746855756,24.9550958972441,-1985.50509012878
"6",-780.980166591347,-2485.56177303995,-1833.3958843572,-7164.0286498216,-1443.67643120409,-1784.77755412335,-906.227424582714,-3514.45269763617,-2962.57270709884,-4635.07321737755,-2255.78662089752,-3475.8976131833,410.099913567094,-5040.84800627039,-1510.539298212,331.792011958816,964.068500927198,-3257.00907619749,-3980.90874454219,-7774.62708662654,2120.64150562822,304.628885739869,-6413.699914981,-4097.84786925528,-1723.66707150446,-1605.20315163565,-2787.77962445233,570.41955723966,-1205.82962534797,-909.982561668843,-5794.30885174674,-1466.40561631004,249.038677300782,-1223.64299794026,-2161.0691083543,-1833.82675745171,-3131.62720048802,-1247.21703389339,-2622.59216408209,1314.47071943274,-2809.57626807042,824.661480208297,-191.373092317317,-98.8314261490623,-2613.00704106637
"7",-3149.52598318891,-5556.38123872837,-3610.8765414527,-11447.772977027,-2860.10236800127,-5772.07784792309,-2016.84816121958,-4825.01174761429,-4648.19872791229,-7829.66626371637,-5725.43186796716,-4397.1757745261,-2434.50181140265,-10862.9479677614,-2518.21421187399,-48.6373243613798,244.626021907643,-5063.43049598835,-6965.40823118448,-14983.9704283424,2130.41803890162,-2119.49506696924,-10898.2587569564,-7447.73610193052,-3580.7878214872,-3294.48787299732,-6438.54577130155,-1438.19306276638,-3201.23933068446,-2186.83605063538,-7931.18156948778,-3797.76876836866,361.763335122743,-2793.44302314326,-3336.58906871202,-1353.7483233014,-3694.13380517975,-2115.16323779151,-6291.18737365947,244.460657727395,-5110.51133217145,1030.02122863328,-579.106325164001,-307.673703798049,-4636.87856664127
"8",-2790.39586211839,-5489.40904540295,-3966.00025256663,-11988.1092119848,-3503.75627527519,-8196.76652473499,-3040.28770508965,-4606.89485434154,-5140.66847166928,-10441.2005846294,-8192.47457143461,-4999.40914517134,-2634.67156878758,-10963.7293497336,-1797.94527997977,235.505610562484,922.073061985007,-4672.74342985396,-7409.47944339436,-14451.5208162259,1881.97207507263,-444.601137876149,-9638.53402879213,-7936.14891314635,-3250.70028208646,-3504.9725242629,-5563.26811815174,-2139.5812734028,-3307.02487453411,-2881.09980657651,-9282.87593982103,-4472.71387956058,-91.0566231074172,-3155.27432150977,-4101.58775911381,-1642.95895774207,-3183.0648966989,-2922.35375597645,-7712.88486390173,1269.57359807031,-5969.53194352779,522.629045228827,-1673.08798568947,-266.442300228746,-4880.19291176935
"9",-1301.06081519879,-4147.84997158703,-4424.94559991384,-10242.5918945331,-3226.07131712325,-5111.20198154494,-2422.18641801628,-4188.73118491088,-4287.62616096377,-7561.46194202437,-6859.86770576668,-4095.55515987441,1809.82231153827,-6321.83725083696,-306.62168625534,-384.402825211288,1665.15132139581,-2977.83511519621,-4070.0424411155,-7927.02090283416,2989.26327789485,2265.58115025167,-7369.9872014269,-6110.25793538711,-1615.92749086545,-3353.69749705631,-2557.2745128233,-749.991292948213,-2427.97567784283,-3760.67148167767,-9477.53988571901,-2911.37127582382,-454.144687579698,-2197.78521609005,-3827.11924414665,-2309.60629910571,-3851.35552924159,-2776.9223863893,-3595.35764266771,2755.3565253978,-3975.79614958272,221.832147976325,-1245.71076348459,-534.242603812043,-3988.98907511994
"10",-89.1827248675836,-4377.66832745193,-4658.07923932643,-12716.341888977,-3371.49477248547,-4614.4118965215,-2925.43230666181,-4878.44340233224,-4135.22363986143,-5977.28794706698,-4837.49142455274,-3914.62901335575,1617.02823972265,-5282.81390879445,-48.9843746694241,-136.298357315223,1002.75825476736,-2533.9118613883,-4185.19984487682,-7335.77870461238,4723.16056525509,2508.75264136423,-8949.32556358876,-6513.76016058977,-1630.70742124434,-3737.72431470973,-2888.70820832587,-498.36258719031,-3115.87492704136,-4826.51169655418,-10418.1036822526,-2689.62094288585,-236.369840939235,-2758.88588980072,-2955.80532068156,-3217.01495933501,-5212.76572574161,-3365.66058414767,-2450.15284709941,2783.95111266808,-3761.92899399441,62.6362806899215,111.024050612166,-1301.20501134773,-2723.82112040417
"11",345.881083170654,-5932.35140037827,-5188.85674652307,-14082.4887572931,-3826.69775918784,-4998.81944704669,-3631.06533291858,-4985.66175416004,-4497.37267308698,-7067.17780257389,-5388.67659801119,-3891.41249651556,2731.77267400732,-4408.30176509839,573.369831342145,330.771417595557,1066.57296351435,-2284.32229076567,-3570.91278541723,-7643.45890352235,4824.05924111714,3327.35739357387,-8743.15347224108,-6058.78844226696,-2269.58153017318,-2830.09970426763,-3164.92787925436,1001.3585313728,-3114.62906866211,-6347.96107577199,-12073.4693888633,-1801.03996669219,-1036.84926895524,-3216.0292344188,-2884.21045511945,-3920.85950130254,-5151.20808179106,-4223.89473838601,-2602.86591237182,4245.0593692391,-4373.38286543528,170.213512376622,1097.55202172378,-1574.76690490341,-2338.41276126263
"12",772.079488943855,-7029.30313689559,-5809.77459646462,-15803.7258815979,-4553.95813011663,-5770.72733934776,-4155.35842308989,-5696.10854370163,-5067.19415247783,-8870.7556455242,-5476.93915762263,-4299.71524794326,2257.94405306032,-4585.32114815779,1046.78665201578,-386.852592258067,1343.02789640156,-3044.57022248984,-3531.57682140387,-7591.88742495071,6152.05513292667,3996.44018820405,-10073.2692438575,-7434.55163605576,-2865.3499952992,-4830.68656532436,-4406.98871749453,1074.89463508829,-2922.06977695807,-8075.73812422021,-13301.8448754256,-2241.67230506767,-1100.25948624653,-2318.18998499775,-3254.5090889718,-3775.53264083735,-6344.20322245103,-4244.06940626814,-3231.49246566393,3981.32514802565,-4010.22927475589,-107.279868115698,2211.27954919773,-1334.7252504003,-2036.89892417842
"13",-1178.39708498219,-10771.9441132122,-6550.72380386768,-18542.3400351977,-5006.40742818048,-7252.35675266905,-4849.37233904902,-6809.32905812057,-5361.5831558016,-10311.9324762714,-7139.17547364949,-4979.4177654112,405.738452198522,-5383.10207130712,713.531207329564,-817.495057284751,855.53558688697,-4051.76095032437,-4025.79567225136,-7786.85758742271,6906.34343752462,4145.85729206201,-9632.29199305786,-8620.24792328236,-2499.94415179905,-5613.48313202985,-5006.3663811538,177.071920892446,-3897.46575853668,-9559.93104685307,-15564.3197831816,-1993.33769638421,-2187.19849791397,-2620.32553366877,-4975.33135786579,-4653.36758120084,-7111.85355032297,-4717.48162566538,-3863.57111469674,4401.68530729605,-3693.5136673228,-85.1387219037533,2952.72558159412,-1167.44334778604,-3010.37503548324
"14",-1387.23464281854,-12449.3205014922,-7246.49712250778,-20598.9215264258,-5577.05107935274,-8586.14660383124,-5571.4560351765,-7678.48024000358,-4817.93042045412,-12247.6778318154,-8342.56950071116,-4831.71643137302,-914.864456724645,-6343.71337689177,-247.680109581783,-1243.90485822172,668.919400144567,-4224.60163978269,-6040.5443401283,-10459.0020764901,7172.90669340478,4390.33465060577,-12203.354309619,-10868.1809377073,-3074.75889292825,-6680.85462962223,-6570.0576646287,44.3777994038428,-4220.13047859821,-11273.8861014884,-18140.7218540566,-2803.61255992569,-2084.88509565073,-3837.93429831842,-5936.83071502695,-5282.75845199683,-8080.61559461157,-4977.1076454977,-5072.09898699259,4822.27172877895,-4430.04131502413,-75.2416355371024,2314.09310071738,-1310.64929096472,-3072.25859983036
"15",285.440648127238,-12529.5632810676,-7726.69250390199,-22356.4420184054,-5731.8260712117,-8115.93943615465,-5678.506957286,-7892.5843149061,-4302.30127773934,-12585.163551566,-8655.25237127957,-4653.22693878781,-1101.98933499229,-7982.12524868006,-336.445130049293,-288.716109076972,1402.14567620907,-3217.91906324882,-6321.10780369248,-9234.83075394871,8475.28491819037,4445.14507246333,-10505.4057141722,-10580.3913781116,-1938.67539326034,-5911.0979672377,-5811.97071727087,2315.65034771624,-4112.49213120771,-11759.6058252191,-19466.9196329572,-2382.34504971641,-2509.65544540394,-3795.83341847257,-7222.80542672376,-5969.4580208988,-8842.08928666938,-4437.87796741629,-4824.78222382294,6332.21618142056,-3341.06941130669,1278.74668738062,3844.65443698084,-901.224239085488,-2333.17925597992
"16",239.941812176537,-13337.2208453609,-8478.84822093079,-23237.0615233333,-5919.43952056195,-9067.07040330175,-5315.82630163751,-8675.2805122392,-4667.23326510354,-15357.4346959065,-9578.30608538531,-5390.10145513942,-1985.04122748329,-8357.29965329437,-248.688464510935,107.219248520855,620.692273237468,-4271.65749841623,-5326.27661387147,-9072.11430416403,9915.51676583458,4433.73808524275,-12042.5030757663,-10789.9401749302,-1738.17068402561,-5177.00237342035,-6633.45216944042,1432.75077581296,-4366.308508156,-12944.5160329853,-21805.0156399661,-2168.10880508817,-2890.5920553644,-4125.13935705426,-8627.35581807548,-6581.51054472891,-9955.79198724676,-4637.90632685445,-5574.3256130879,6305.78551205822,-3721.38353479767,2095.96487563473,4817.92578150227,-173.824634597286,-2268.77947476147
"17",-352.3638868866,-13902.924270749,-8739.88052280673,-23897.7703361468,-6044.17290567666,-9242.7863783125,-5728.56430878277,-8703.89615203401,-4582.92977107066,-16303.7372611599,-10496.6832067755,-5072.36775146257,-1146.67669571961,-6696.04044832576,-421.208771166604,580.43182694549,1011.19459038832,-3910.48133693977,-6245.45151826996,-10638.4273304355,11313.0428639077,4170.50111736255,-13470.0889727733,-12190.3754730231,-1905.77178059288,-5880.11137263085,-6921.9357591896,2466.03126570219,-4631.64192374553,-14308.7424275956,-23119.3290650543,-1992.804289024,-3841.84376296713,-4037.04660976897,-10361.2800230684,-7416.01773974364,-10386.3235471826,-5199.73362755359,-4973.61398540865,6874.29067647817,-3698.50241467061,1645.24361512285,6456.4734965205,-237.745413720995,-2086.16131147787
"18",-527.898115929154,-14565.8226612004,-9140.32502677336,-25934.8358698624,-6487.55192243917,-10490.2824074161,-5828.35784233159,-9270.63700903527,-4049.72172968362,-18546.9976657186,-12225.6474576327,-3370.38565586453,-1006.10704459226,-2732.13876174402,-1051.2235516859,1098.5407801012,1206.62329126103,-4382.96103844528,-6388.1247233088,-11125.3876825225,11686.7927471613,3211.69002839163,-14717.830290914,-13979.2432428794,-2025.79484794316,-6314.71703412367,-8471.2297454563,3131.52750634065,-5312.51110179529,-15376.1986449812,-25154.0873236802,-2154.01103308091,-3839.01101054196,-4637.25851055389,-12226.685435461,-8096.82612763601,-10455.1634578677,-5082.70825018954,-4694.25176821887,6742.40610049744,-4355.38327978849,1764.00336344161,7414.8128438696,-325.422081969301,-2956.76826769307
"19",-107.928034182245,-14033.4783190632,-9765.59234452046,-26478.1906280194,-6341.37955384039,-9397.21710026553,-5021.32165395147,-9635.77758906296,-3843.70328217368,-18541.5926338518,-12240.8083926006,-2098.29854454477,492.630706637712,2700.58277801167,-358.046458026109,1896.69775832106,1709.3880372427,-4687.02722598813,-5231.76987694264,-10859.5604686821,12750.2342181816,3839.98186106216,-14083.9086350713,-14003.690391314,-1853.76615432159,-6047.05152266327,-8576.25590265772,6140.67632954631,-5536.09768639358,-16411.7827994515,-26693.4211503117,-1070.98927594579,-3832.09532896535,-4238.71648354234,-13526.5289000017,-8520.6561556689,-10855.630046526,-4835.63457826366,-4078.38320029133,8320.01658028549,-4355.50454941813,1797.24036725814,6762.23612562988,92.9290535224309,-2853.0779855039
"20",-2290.01071988488,-15562.4430966329,-9751.89947820941,-26936.4195744288,-6663.03340079518,-11317.6949645539,-4577.20982305521,-10397.0846171104,-4501.18737528374,-20667.3305897441,-14051.1276289715,-2580.65728036822,-68.9794587189754,4798.43495541267,-1437.86466513287,2972.64545958888,444.679335372102,-6236.26854070411,-6579.88162351631,-13451.5105477452,13404.8252479121,3117.0996627281,-17007.573422809,-16022.0398253337,-2325.77844861272,-6494.21386859567,-11132.2796532618,6767.66839762236,-6016.14782413358,-17895.6605242433,-29177.8775234389,-1816.01533198047,-3781.75797498631,-3953.20585908363,-17279.567913605,-8578.45525260825,-11981.7851199675,-5445.85624351749,-5562.28024310369,7994.66558233484,-4601.98747397516,1857.25965943985,6263.37500542939,-51.0722046268911,-4375.33171440486
"21",-1908.05330722684,-15885.5786112268,-10387.2379465718,-26411.4118677221,-7045.3262496636,-11506.0534407335,-4699.55444423153,-10854.6412154289,-4145.61073976451,-21195.2220563984,-14590.9137959402,-2181.02171031933,2077.88103711176,9882.17354431147,-1405.78005200332,3564.30962709366,862.68981677476,-6975.245091009,-5633.56573278369,-13657.2771357169,14682.1689870869,2985.78300940593,-17322.5533712617,-16730.8673955751,-2984.40004811433,-6893.58195987799,-12532.5569008785,7252.44950148637,-6660.35351170378,-18486.6053668816,-30931.5116200187,-1037.61197953862,-3986.35096139431,-3846.81908955631,-19567.4807803698,-8161.82766384716,-12314.9313523621,-5574.64589156343,-4254.97555338639,8054.68305346676,-4512.45173936852,1940.76693090771,6331.74998523606,-279.307913753034,-4754.08056449596
"22",-1399.04215195949,-16312.6270888235,-11171.9335960903,-27978.662745987,-7268.50885303942,-11219.1114188255,-3656.76574632307,-11572.8678162454,-4073.31698103078,-22527.7904023453,-15387.0525979278,-1904.60318167438,2811.39066109887,13812.8706010562,-1246.70373392969,4250.63999793728,1065.20816207627,-7652.17415023977,-4560.91876602105,-13263.3446378604,16337.0868001287,2352.31351692611,-17858.5290722054,-17552.8484974095,-3059.82390216427,-7374.53232950587,-13713.2826770907,7245.52868673932,-6897.10207175173,-19212.933553677,-33176.836399657,-506.054790522483,-4184.34112979262,-2984.28173267311,-21251.7352233002,-8626.08486834736,-12837.3772656213,-6226.82983863518,-4296.27086373124,9079.59444586534,-3629.68646567524,2443.94628489657,6315.71946159078,-98.7286906050813,-4724.67163199425
"23",-753.256885256924,-16122.0629228724,-11809.2103227998,-29276.2839870502,-7632.64853722599,-10722.5631771549,-2999.87264550857,-12247.7862142935,-3650.95735190144,-24216.3583018719,-16038.1907936715,-2149.53761512555,3513.3574905084,18544.8860525513,-1459.04435586282,5250.02019315871,1060.84036406873,-7308.59368689553,-4446.35320741011,-12273.542454378,17541.43229009,2634.66172043499,-18434.9178872384,-17821.7126988858,-3073.21100397565,-7776.29043530116,-13528.1218542561,6709.1946005583,-7235.32701936545,-19925.9022185886,-34399.5728987886,358.798721212494,-4502.10290483961,-3697.44472411636,-23351.8801984821,-8682.12788197705,-13930.8717023563,-6755.10041433206,-3145.29586311805,8943.79139075308,-3633.3897887572,1960.8701790158,6183.69802679827,169.738811902361,-5015.93790089062
"24",1175.57632859127,-15834.8513818734,-11675.4531337573,-29984.2102877445,-7524.69831738653,-10849.1214184125,-1599.017693465,-12042.2319113326,-2887.38305253229,-25530.8100865239,-15887.1730898685,-663.486693907153,5033.77585944827,24302.2126140528,-1340.49203654186,6091.9277319673,1695.91803729524,-7514.06866896037,-3916.59964609979,-11788.3839978146,18809.6219501974,2868.0370749243,-19050.546061671,-18688.4587943817,-3209.65927001403,-6845.53098338677,-13957.0862064001,8802.99765321924,-7226.51316322243,-20952.2072346178,-36203.2536525286,774.666721915313,-4815.96892539304,-2287.49645780744,-24083.5417363135,-9349.7474305729,-14483.1252714051,-6182.69776915614,-2444.8669689201,9390.06206092658,-1776.89337546547,3519.48370415712,6742.56880822047,1269.50394565771,-4474.41210492837
"25",2132.90002165134,-15788.046740013,-11852.4839230397,-29880.0443196892,-7428.17770091793,-11896.2076249662,-1060.40356746456,-12877.596771825,-2643.5728728851,-25437.4735801306,-15205.2644379469,-1355.30313243999,5648.42779554342,27982.8021704372,-1758.04754578856,6445.95078902054,2157.52760012884,-6911.08854858066,-5059.25688672268,-12643.800334834,20254.755456429,2277.42370776105,-20349.5210796515,-21095.6466520847,-3696.44327309414,-6886.72641615442,-14575.7679392652,8058.56715613517,-7787.58653917801,-22061.668632102,-38861.4565704634,1281.27271117289,-6039.23446368788,-1858.82721352504,-26479.9891089424,-9571.64258929124,-14981.230487781,-6398.92153610404,-2203.36588923667,9116.92328731649,-1945.51613989558,4753.3357369376,7072.82188331975,2288.68267093969,-4224.45753410709
"26",2763.61645603132,-15453.8472089823,-12171.4118974218,-30817.8334754129,-7758.01439768929,-12353.3533105434,-755.969037615994,-12822.709011145,-2320.88199583459,-23567.0562013252,-13938.5547433693,-1313.84488611249,6931.66929376685,31490.6452747728,-1540.8436770129,6821.07890606475,3096.33336548482,-6740.96101215026,-5046.16072557597,-13378.0765804826,22174.2002772151,2775.25277686967,-21035.0362190872,-21728.9728934915,-3898.8086514862,-7770.35107900514,-14487.4369332929,8131.82558149386,-6694.82292920662,-23227.5120828173,-41042.176320379,1541.01320901769,-7216.20243745005,-1250.93746558967,-28334.4331265553,-10038.4980821829,-15051.7417369461,-6149.63513598365,-1692.56088908714,8616.88022938945,-2126.12913247393,4468.82086126551,8704.13555588483,2650.36521454132,-4193.32925371642
"27",4194.14890146802,-16095.0248425339,-12635.2832212686,-32698.4337833153,-7770.54584603341,-13161.1319886897,-24.8829954949761,-13087.9886631149,-2639.93777219223,-25030.4935518996,-15284.453753711,-1118.10390556178,6983.43532883575,35059.3829808784,-1535.05169293416,8227.53319416884,3394.9604016802,-7028.88178139251,-5084.22147535077,-13510.9949573475,22957.3615359772,3256.21387788114,-22374.3647606521,-21670.6580165005,-4380.50066812429,-7397.47203291267,-13761.0497895029,7921.71220802365,-8242.70397339078,-23838.7638593153,-43501.7826305578,393.615935123253,-8033.20100969629,-1192.9297644317,-32216.3778028005,-10932.2125855665,-15528.2023922525,-6196.080096814,-2181.8716972957,9455.01223497287,-3326.70326741554,4387.96873115606,8218.2902702194,2890.16436108228,-3906.55573038032
"28",5436.62648850331,-17000.8531203036,-13065.1970887965,-32335.413715832,-7739.83778624559,-14122.1829925747,380.886275737663,-13783.8220722443,-2623.39669705214,-24731.1325921798,-15600.1893146173,-828.311537075177,6914.83296609381,40543.7254567643,-1815.39481475625,8323.65328533464,4693.05275306901,-7728.49101162896,-4602.88389736027,-11845.152115866,22548.2789355313,3986.19759113524,-25149.1642452726,-21963.0141916675,-4944.47437033353,-7811.12905882409,-15241.7299410334,11578.9451743193,-8112.37779258432,-24870.4321868291,-46483.3754581611,99.4492722877167,-8551.30749848218,-171.450774233417,-36539.7824346378,-11323.4802386575,-16340.1056051892,-5301.61916084508,-3359.88784280403,9372.55041221657,-2859.64314395739,6072.30289596898,10629.0496359657,3158.03861549358,-2843.08673549571
"29",5382.63890292617,-18917.6356555966,-13470.2223180007,-34057.7132121131,-8181.92461241599,-15970.0673085913,927.765484320884,-15247.6968156836,-3054.76324984466,-26217.4754231064,-16563.1508584421,-1125.61237773651,3897.37173190441,41969.7017999343,-1528.0577719074,8812.86639647464,6179.99630317293,-10021.6144126674,-3697.84843032855,-12117.865162386,23055.6182033013,2678.44484056926,-27029.1963788276,-22905.0692481927,-5421.00862890894,-8001.82353908028,-16052.9218129032,8512.62216892081,-9159.25108948075,-25400.5293315104,-48950.7471660479,-383.519611882253,-9441.87337234803,164.701134335355,-41320.4486328924,-12202.474771646,-17261.0034250941,-6470.29358671818,-4877.90638639564,8583.82379585729,-3651.22328051313,6128.76605145755,12127.2464140082,3297.87681145051,-3436.0734685876
"30",5840.42602084187,-19922.4702371737,-13872.7899689486,-35266.9716371802,-8051.27047342171,-16538.3241194762,1748.96839561038,-15555.3280790322,-3336.29951920298,-26790.5010666322,-16233.4274626967,-891.793335105511,4169.74099677018,45247.2671065851,-1277.49232506448,9334.22392035846,4932.68690371642,-11320.6275987575,-3664.35843420503,-11897.2047972783,23898.3578467621,2837.26213089917,-28407.141818068,-22780.5130589766,-5662.83866914292,-8508.21069093532,-15902.1331838586,8964.41334286546,-9721.0783314027,-26135.1902047163,-51679.2211655988,-820.939478815069,-10617.314352382,-95.1595941203868,-44793.7490527598,-13508.980101858,-17913.0182012465,-6673.67950848123,-3818.509493674,8923.05315322024,-4237.72346552167,6401.06712881913,13731.6548575511,2934.01549312542,-2998.50760447052
"31",5240.60709841212,-21970.0382903885,-14642.5150918166,-37896.0993822301,-7939.54527839427,-18208.1511311667,2560.77560746088,-16439.3096814361,-3580.04880444164,-28303.0395241967,-17594.3115582798,-1069.93942018536,3658.71203185994,46441.1362382231,-1612.06337123511,9826.2991574996,5324.5739857111,-12621.195315556,-4318.47327385149,-13789.381377388,24085.4955953927,2526.98995521936,-31493.0990808387,-24795.3262872299,-6575.21392347717,-9254.31467821917,-17297.2902097512,8369.60226130247,-10458.9956938674,-27323.8629542497,-55763.9814535493,-944.462616839772,-11642.7449383978,-465.728930167576,-48388.1551871183,-14747.4990485382,-19188.8095940048,-6162.54675200075,-5859.78515085824,8897.05867698853,-4164.90427990141,7049.39379920313,14402.3147748723,3104.87567704204,-4028.11431202188
"32",7109.51767087201,-21998.5468467739,-14610.5684311849,-38818.618969666,-8180.58570752857,-19129.5086767776,2662.99713387893,-17429.7191006677,-3467.63462797985,-29901.7847642811,-18135.1053720169,-1281.17113009588,3890.8885348609,48335.4500672204,-2155.97137686209,10392.0546083658,5252.68299465312,-14546.4209210896,-4875.85876916334,-14027.4147381583,24212.5110238379,2095.45492227761,-34254.0030369344,-25893.2921986914,-7003.32645192744,-9942.21011726103,-18913.5349217464,8634.50130344781,-10943.4146796925,-28016.2620296981,-58600.2604825241,-1341.07897168917,-12563.8814163914,-629.152375128082,-52586.5340305368,-15548.8260619717,-19831.8703291823,-5528.49227281235,-6662.09843107176,9318.67197187124,-5057.98784868234,7673.50291310112,15484.9584696093,3475.2773875701,-4577.4554049334
"33",6279.87019523426,-23690.5712331819,-14807.850042772,-40699.8808386979,-8832.61575214212,-20789.9224882752,3609.11564218315,-18569.897129148,-4152.19171116556,-30334.9745843353,-19494.4329759265,-1495.93324132842,3823.66105435195,51684.5575858964,-2334.73623913966,10396.4336317669,5640.38210111415,-15894.3850883105,-4211.1648354612,-15322.3292072757,24599.9773800648,2197.31647028659,-38104.3608720387,-27144.6203158761,-7562.96603825473,-9691.25739809725,-18784.9241977551,8564.6033638861,-11298.6243563011,-28837.7994987886,-61274.5995014498,-1525.22888982061,-12804.7557928105,-361.039511932207,-56542.3023852664,-15454.813003173,-20351.4733880117,-6363.58690458346,-7070.19947162647,10268.627473632,-6144.65132822564,8898.16816655433,16434.5541561191,3952.73662515463,-4408.47571063626
"34",6359.50749069532,-25110.7052619018,-15269.398979695,-42830.4126683977,-9186.84876503487,-22345.7879231567,4317.372035417,-20195.9166856963,-4757.07430944134,-31061.9745040214,-20518.258996769,-989.530410244299,4780.53245301072,53917.9233787752,-2346.91274941572,10336.4623502455,6290.8150240767,-17761.1435865894,-4812.21253401256,-16511.7872527295,25020.6840695469,1908.65591048792,-41612.1736492185,-28946.646899128,-8628.51214220981,-10731.4310791441,-19431.554966155,8765.03821775784,-11995.0516510405,-29622.4976124615,-64969.3547952609,-1164.77551510632,-13865.2787437723,-822.407024880831,-61024.1306015871,-16327.4504186952,-21209.0596209702,-5720.86932051208,-6512.96160856292,10050.7893966184,-8094.31614645161,8634.20503691676,17800.5308633738,4057.18546241188,-4859.07180119661
"35",5030.4198158713,-26215.5896907029,-15956.4239102837,-43685.5477596449,-9338.34257481775,-23868.8715761198,4859.61282540491,-20947.4641896628,-5140.44221285493,-31633.688227187,-20747.8139886678,-1105.44775228935,4252.94760521581,55922.9533497597,-2215.81457314933,10313.0765616506,6410.37669671988,-18985.9444347829,-4718.16322494526,-16693.7318675098,26299.0255621397,1427.59193975641,-43496.1591711658,-29946.9672837295,-9007.36320225627,-11151.9261538791,-20343.0737712394,8749.07699421662,-12546.6103523478,-30697.3614200222,-68742.0902911326,-1513.28057803548,-14860.856133713,-617.606949491144,-64932.9671532879,-17140.6202422407,-21898.4364004466,-5493.91048940324,-7433.90393912246,10610.7025830787,-8557.78453846991,9211.62457450173,19212.9733553456,3736.90003437449,-4672.05990215045
"36",5035.89751435777,-28156.1465530695,-16493.9094591055,-44852.6123635789,-9712.52395755491,-24610.8894964973,5607.56641734551,-21662.2080527458,-5203.02897584409,-32695.5856020091,-20552.9619770528,-415.711413060835,4836.64568823046,56475.3429061942,-2241.35126571791,11266.9436236203,7315.81566008194,-21960.5609844844,-3942.58707397712,-17417.7157874658,27237.0707898859,606.955142227234,-46476.6876698947,-31826.8856245247,-9394.79484037056,-11363.9436012125,-22420.5969557654,8943.79720761712,-13180.8256353827,-32139.447820494,-72101.857783584,-1976.39007777951,-16350.2554646187,-281.140239530034,-69011.6396481635,-18211.9038311592,-22945.4637609223,-4791.99545599008,-7668.90743457095,11271.0007563879,-8827.7262844727,9754.27032583688,20292.0151995863,3985.02701592194,-5420.13811867008
